svm_type c_svc
kernel_type rbf
gamma 0.5
nr_class 2
total_sv 72
rho -0.947079
label 0 1
nr_sv 38 34
SV
0.125 1:-0.970685 2:-0.287628 3:-0.0168586 4:-0.98443 5:-0.057289 6:0.28713 7:0.334078 8:-0.404863 9:-0.700037 10:-0.855379 11:0.700037 12:-0.265553 13:-0.491273 
0.125 1:-0.419268 2:-0.277301 3:0.14438 4:-0.580841 5:-0.712095 6:0.459784 7:-0.282782 8:0.23276 9:-0.661974 10:0.42771 11:0.661974 12:0.953693 13:-0.520392 
0.125 1:-0.990569 2:-0.277649 3:0.122252 4:-0.967944 5:-0.354067 6:0.00204429 7:0.417818 8:-0.479934 9:-0.717821 10:-0.889157 11:0.717822 12:-0.346853 13:-0.506795 
0.125 1:-0.988555 2:-0.266997 3:0.0939441 4:-0.962711 5:-0.414651 6:0.107716 7:0.409756 8:-0.425385 9:-0.768082 10:-0.879841 11:0.768081 12:-0.306656 13:-0.590338 
0.125 1:-0.978319 2:-0.276224 3:-0.0156972 4:-0.965141 5:-0.360057 6:-0.35003 7:0.133556 8:-0.549588 9:-0.301052 10:-0.865399 11:0.301052 12:-0.345524 13:0.0214057 
0.125 1:-0.824581 2:-0.252569 3:0.028266 4:-0.865654 5:-0.203907 6:-0.999845 7:-0.26222 8:0.517607 9:-0.999448 10:-0.958192 11:0.999447 12:0.115401 13:-0.999275 
0.125 1:-0.710732 2:-0.117944 3:0.374533 4:-0.532672 5:-0.614272 6:-0.656004 7:-0.109203 8:0.346212 9:-0.994359 10:-0.737394 11:0.99436 12:0.559094 13:-0.991071 
0.125 1:-0.987067 2:-0.287338 3:0.117126 4:-0.968921 5:-0.292152 6:-0.460949 7:0.141441 8:-0.378394 9:-0.49852 10:-0.903924 11:0.49852 12:-0.425872 13:-0.232812 
0.125 1:-0.757049 2:-0.119846 3:0.305792 4:-0.56883 5:-0.596611 6:-0.691089 7:0.0232898 8:0.201885 9:-0.994433 10:-0.769423 11:0.994433 12:0.497214 13:-0.990823 
0.125 1:-0.988655 2:-0.281192 3:0.129769 4:-0.96683 5:-0.335056 6:-0.252869 7:0.283258 8:-0.394763 9:-0.650298 10:-0.896835 11:0.650298 12:-0.38439 13:-0.422951 
0.0200661264060506 1:-0.977358 2:-0.254421 3:0.00786087 4:-0.946263 5:-0.406112 6:-0.24341 7:0.300336 8:-0.634086 9:-0.407879 10:-0.835538 11:0.407879 12:-0.265907 13:-0.0732011 
0.03234917018342386 1:-0.698239 2:0.0606955 3:0.342978 4:0.546345 5:1 6:0.372705 7:0.719256 8:-0.662257 9:-0.878394 10:0.615968 11:0.878394 12:0.151159 13:-0.75422 
0.125 1:-0.986414 2:-0.264196 3:0.103803 4:-0.987427 5:-0.327854 6:0.309315 7:0.568056 8:-0.463732 9:-0.915453 10:-0.924586 11:0.915454 12:-0.35264 13:-0.836197 
0.08696548476719002 1:-0.775436 2:-0.278176 3:-0.00138967 4:-0.748907 5:-0.129974 6:1 7:-1 8:0.055896 9:0.390803 10:0.0122398 11:-0.390803 12:0.780125 13:0.40786 
0.125 1:-0.527394 2:-0.253721 3:0.140488 4:-0.584654 5:-0.588315 6:0.692032 7:-0.562793 8:0.374618 9:-0.482606 10:0.4256 11:0.482606 12:1 13:-0.337543 
0.05933163514140127 1:-0.985445 2:-0.264068 3:0.0224548 4:-0.987085 5:-0.0394128 6:0.354314 7:0.618063 8:-0.522105 9:-0.911198 10:-0.920795 11:0.911198 12:-0.342334 13:-0.825153 
0.125 1:-0.410784 2:-0.147766 3:0.346318 4:-0.546032 5:-0.84234 6:0.455682 7:-0.261396 8:0.274926 9:-0.733885 10:0.388224 11:0.733887 12:0.917813 13:-0.614544 
0.125 1:-0.488115 2:-0.142749 3:-0.0788749 4:-0.694462 5:0.309755 6:-0.692889 7:0.075923 8:0.145809 9:-0.995849 10:-0.733146 11:0.995848 12:0.565829 13:-0.993058 
0.09441590130895035 1:-0.982731 2:-0.278239 3:0.073896 4:-0.976744 5:-0.22665 6:-0.642903 7:-0.600467 8:-0.439101 9:0.456232 10:-0.904292 11:-0.456232 12:-0.467068 13:0.571441 
0.125 1:-0.98943 2:-0.281719 3:0.132604 4:-0.965207 5:-0.361408 6:-0.121318 7:0.397044 8:-0.474311 9:-0.699131 10:-0.891682 11:0.699131 12:-0.358668 13:-0.479994 
0.03741846302818076 1:-0.327349 2:0.962346 3:0.881919 4:0.894846 5:0.94184 6:0.504684 7:0.842445 8:-0.763171 9:-0.915014 10:0.901467 11:0.915015 12:-0.954933 13:-0.818173 
0.125 1:-0.667542 2:-0.247713 3:0.100603 4:-0.671972 5:-0.308494 6:0.875783 7:-0.690002 8:0.192494 9:-0.1303 10:0.234553 11:0.1303 12:0.932008 13:0.016329 
0.125 1:-0.568062 2:-0.185741 3:-0.145506 4:-0.651746 5:0.341935 6:-0.674101 7:-0.329963 8:0.585405 9:-0.992823 10:-0.700356 11:0.992824 12:0.600214 13:-0.989323 
0.125 1:-0.999782 2:-0.280913 3:0.0444589 4:-0.991071 5:-0.207106 6:-0.607223 7:0.162771 8:-0.040183 9:-0.895522 10:-0.984422 11:0.895524 12:-0.621806 13:-0.823283 
0.125 1:-0.985662 2:-0.275169 3:-0.0390592 4:-0.961296 5:-0.324177 6:-0.331798 7:0.0421247 8:-0.308904 9:-0.45596 10:-0.876861 11:0.45596 12:-0.360872 13:-0.197093 
0.125 1:-0.999819 2:-0.282305 3:0.0412682 4:-0.985668 5:-0.208723 6:-0.598378 7:-0.26243 8:0.433577 9:-0.906904 10:-0.980754 11:0.906906 12:-0.594879 13:-0.860071 
0.02588511623364787 1:0.278155 2:0.912605 3:1 4:0.0826323 5:-0.255333 6:0.0807664 7:0.662918 8:-0.535572 9:-0.950098 10:0.66786 11:0.950099 12:-0.602891 13:-0.898997 
0.04427404602959788 1:-0.093941 2:-1 3:-0.831045 4:-0.207557 5:0.491111 6:0.228422 7:0.526693 8:-0.445433 9:-0.886038 10:0.627647 11:0.88604 12:0.350936 13:-0.784111 
0.125 1:-0.984571 2:-0.286113 3:0.0941561 4:-0.972562 5:-0.26684 6:-0.543568 7:0.0013334 8:-0.544323 9:-0.148562 10:-0.900146 11:0.148562 12:-0.440203 13:0.1658 
0.125 1:-0.983135 2:-0.265677 3:0.0171848 4:-0.989889 5:-0.177825 6:0.464403 7:0.585389 8:-0.593717 9:-0.793434 10:-0.884713 11:0.793433 12:-0.306087 13:-0.611114 
0.125 1:-0.989484 2:-0.271963 3:0.114017 4:-0.951426 5:-0.446844 6:0.144323 7:0.415999 8:-0.423375 9:-0.777763 10:-0.868248 11:0.777765 12:-0.272256 13:-0.60567 
0.125 1:-0.67634 2:-0.0568938 3:0.404962 4:-0.490678 5:-0.56826 6:-0.657481 7:0.0390257 8:0.186169 9:-0.996008 10:-0.740843 11:0.99601 12:0.567501 13:-0.993407 
0.125 1:-0.989888 2:-0.274006 3:0.126919 4:-0.967496 5:-0.366172 6:0.0854911 7:0.421757 8:-0.448239 9:-0.757349 10:-0.886801 11:0.757349 12:-0.328993 13:-0.570969 
0.03738790764062287 1:1 2:-0.623921 3:0.778347 4:-0.567079 5:-0.79966 6:-0.115241 7:0.761283 8:-0.639602 9:-0.953584 10:0.676537 11:0.953585 12:-1 13:-0.902486 
0.125 1:-0.987171 2:-0.271503 3:0.0330357 4:-0.975028 5:-0.219029 6:-0.571741 7:-0.863108 8:-0.0965923 9:0.394427 10:-0.9029 11:-0.394427 12:-0.461874 13:0.446299 
0.1165579392892463 1:-0.494536 2:-0.178452 3:-0.100795 4:-0.739711 5:0.24343 6:-0.719375 7:0.165645 8:0.0467971 9:-0.994496 10:-0.725678 11:0.994498 12:0.535563 13:-0.990502 
0.125 1:-0.691913 2:-0.053112 3:0.358802 4:-0.529444 5:-0.559459 6:-0.678838 7:0.0936454 8:0.125668 9:-0.99494 10:-0.738807 11:0.99494 12:0.541034 13:-0.991475 
0.07193438465966843 1:-0.985454 2:-0.288 3:0.0770989 4:-0.972334 5:-0.254679 6:-0.625824 7:-0.0529079 8:-0.5419 9:-0.0862922 10:-0.908189 11:0.0862925 12:-0.46367 13:0.219585 
-0.125 1:-0.954315 2:-0.208521 3:0.175496 4:-0.900794 5:-0.235102 6:0.0910197 7:-0.241059 8:0.169343 9:-0.642264 10:-0.735737 11:0.642264 12:-0.0211255 13:-0.489168 
-0.125 1:-0.90756 2:-0.341965 3:0.0428248 4:-0.944387 5:-0.0689726 6:0.262556 7:-0.32815 8:0.119546 9:-0.48332 10:-0.67886 11:0.483321 12:0.0470219 13:-0.301084 
-0.125 1:-0.916081 2:-0.295855 3:-0.113063 4:-0.976167 5:0.0257604 6:0.339302 7:-0.121455 8:0.134948 9:-0.747654 10:-0.775587 11:0.747655 12:-0.0658122 13:-0.619673 
-0.125 1:-0.923304 2:-0.218497 3:0.0382707 4:-0.959729 5:-0.382329 6:0.0410984 7:-0.312624 8:0.318037 9:-0.719916 10:-0.783726 11:0.719917 12:-0.0900965 13:-0.600766 
-0.125 1:-0.971218 2:-0.235121 3:0.25133 4:-0.907715 5:-0.215686 6:0.185403 7:-0.605437 8:0.722347 9:-0.813486 10:-0.80601 11:0.813485 12:-0.0855505 13:-0.747907 
-0.125 1:-0.947834 2:-0.207142 3:0.130303 4:-0.899599 5:-0.29243 6:0.0362245 7:-0.17519 8:0.00692132 9:-0.542716 10:-0.711345 11:0.542716 12:-0.000849308 13:-0.349823 
-0.125 1:-0.956551 2:-0.230874 3:0.0572946 4:-0.921865 5:-0.437173 6:-0.145599 7:-0.0274493 8:-0.152145 9:-0.544854 10:-0.770356 11:0.544854 12:-0.112968 13:-0.327483 
-0.125 1:-0.900007 2:-0.330249 3:0.047932 4:-0.966139 5:0.0233332 6:0.172387 7:-0.384367 8:0.501368 9:-0.8354 10:-0.788176 11:0.8354 12:-0.0356079 13:-0.763961 
-0.125 1:-0.928891 2:-0.208858 3:0.211862 4:-0.943712 5:-0.222381 6:0.323342 7:-0.255335 8:0.186176 9:-0.643663 10:-0.732529 11:0.643664 12:-0.0144109 13:-0.492852 
-0.125 1:-0.917565 2:-0.218999 3:0.0766411 4:-0.963225 5:-0.351912 6:-0.107666 7:-0.177014 8:0.208694 9:-0.762148 10:-0.801246 11:0.762148 12:-0.113421 13:-0.645649 
-0.125 1:-0.958859 2:-0.215952 3:0.281751 4:-0.908654 5:-0.205327 6:0.174541 7:-0.322067 8:0.454772 9:-0.858795 10:-0.80862 11:0.858795 12:-0.064968 13:-0.793214 
-0.125 1:-0.906125 2:-0.196473 3:0.458616 4:-0.908188 5:-0.122624 6:0.335559 7:0.230904 8:-0.238686 9:-0.759054 10:-0.694222 11:0.759055 12:0.0867322 13:-0.597903 
-0.1033112995111193 1:-0.905298 2:-0.300398 3:-0.0165396 4:-0.97563 5:0.0507092 6:0.320942 7:-0.556592 8:0.666404 9:-0.810509 10:-0.785615 11:0.810509 12:-0.042664 13:-0.740994 
-0.125 1:-0.957687 2:-0.215025 3:0.291967 4:-0.892084 5:-0.118251 6:0.181993 7:-0.0805578 8:0.12188 9:-0.782255 10:-0.759246 11:0.782256 12:-0.0165629 13:-0.66559 
-0.125 1:-0.957285 2:-0.212732 3:0.171872 4:-0.893198 5:-0.247805 6:0.1287 7:-0.293595 8:0.203019 9:-0.616365 10:-0.722546 11:0.616365 12:-0.00251916 13:-0.462286 
-0.125 1:-0.941323 2:-0.23661 3:0.0918332 4:-0.954209 5:-0.262037 6:-0.0892225 7:-0.500615 8:0.0683869 9:-0.220687 10:-0.755937 11:0.220688 12:-0.120235 13:-0.0363818 
-0.125 1:-0.911152 2:-0.205115 3:0.228603 4:-0.94129 5:-0.269358 6:0.358906 7:-0.244252 8:0.162326 9:-0.630734 10:-0.698293 11:0.630734 12:0.043974 13:-0.474408 
-0.125 1:-0.913582 2:-0.220343 3:0.0778143 4:-0.963404 5:-0.345444 6:-0.0888687 7:-0.162598 8:0.159233 9:-0.725079 10:-0.785717 11:0.725079 12:-0.095433 13:-0.592188 
-0.125 1:-0.926309 2:-0.227433 3:0.0929135 4:-0.956628 5:-0.293204 6:-0.104294 7:-0.258567 8:0.0265966 9:-0.464524 10:-0.755908 11:0.464525 12:-0.0957062 13:-0.266162 
-0.125 1:-0.904719 2:-0.324853 3:-0.0197271 4:-0.962167 5:0.0267472 6:0.265329 7:-0.303153 8:0.277476 9:-0.686703 10:-0.735436 11:0.686703 12:-0.00544089 13:-0.555459 
-0.125 1:-0.916809 2:-0.229986 3:0.141696 4:-0.963732 5:-0.289156 6:-0.133661 7:-0.0977171 8:-0.0273558 9:-0.597803 10:-0.770487 11:0.597804 12:-0.102009 13:-0.40977 
-0.125 1:-0.968746 2:-0.22078 3:0.201317 4:-0.898412 5:-0.313649 6:0.435409 7:-0.880261 8:1 9:-0.789476 10:-0.771414 11:0.789476 12:-0.0157311 13:-0.734267 
-0.125 1:-0.910164 2:-0.30586 3:-0.00878919 4:-0.974779 5:0.0410919 6:0.194523 7:-0.491478 8:0.605613 9:-0.821684 10:-0.802619 11:0.821684 12:-0.0753555 13:-0.751786 
-0.06076729018514637 1:-0.967953 2:-0.224548 3:0.247777 4:-0.905109 5:-0.206564 6:0.167381 7:-0.449993 8:0.570546 9:-0.832826 10:-0.806231 11:0.832826 12:-0.0769363 13:-0.764343 
-0.125 1:-0.912287 2:-0.335993 3:0.000323831 4:-0.956345 5:0.0375235 6:0.19072 7:-0.249297 8:0.274985 9:-0.748433 10:-0.760706 11:0.748434 12:-0.0320365 13:-0.633336 
-0.06378063643738999 1:-0.918093 2:-0.335753 3:0.0415753 4:-0.953095 5:0.0293062 6:0.125895 7:-0.358536 8:0.391974 9:-0.746165 10:-0.769715 11:0.746166 12:-0.0488571 13:-0.640379 
-0.125 1:-0.951405 2:-0.242968 3:0.0764397 4:-0.955134 5:-0.334123 6:-0.237496 7:-0.598699 8:0.283193 9:-0.339206 10:-0.797275 11:0.339207 12:-0.189742 13:-0.182802 
-0.125 1:-0.909719 2:-0.214689 3:0.0793042 4:-0.957304 5:-0.370245 6:-0.0789643 7:-0.134686 8:0.142628 9:-0.74025 10:-0.776575 11:0.740252 12:-0.0707349 13:-0.610536 
-0.125 1:-0.98401 2:-0.281435 3:0.0673993 4:-0.979217 5:-0.212966 6:-0.674476 7:-0.630029 8:-0.416441 9:0.46673 10:-0.913999 11:-0.46673 12:-0.491876 13:0.571238 
-0.02372694855432448 1:-0.944269 2:-0.210632 3:0.143775 4:-0.935242 5:-0.288253 6:0.381829 7:-0.795241 8:0.755345 9:-0.62253 10:-0.740488 11:0.622531 12:-0.0235817 13:-0.529125 
-0.125 1:-0.935202 2:-0.219935 3:0.115683 4:-0.951405 5:-0.357544 6:0.20211 7:-0.801538 8:0.780708 9:-0.642849 10:-0.766103 11:0.642849 12:-0.068198 13:-0.553426 
-0.125 1:-0.959593 2:-0.220184 3:0.18801 4:-0.906592 5:-0.241986 6:0.0275092 7:-0.357399 8:0.295377 9:-0.641428 10:-0.756175 11:0.641429 12:-0.0585017 13:-0.502733 
-0.125 1:-0.969888 2:-0.226931 3:0.24042 4:-0.896672 5:-0.156778 6:0.151187 7:-0.285195 8:0.352608 9:-0.790723 10:-0.785116 11:0.790724 12:-0.0610386 13:-0.695044 
-0.125 1:-0.924276 2:-0.225882 3:0.0828132 4:-0.960705 5:-0.346461 6:-0.0419079 7:-0.385738 8:0.316642 9:-0.630866 10:-0.775909 11:0.630866 12:-0.100455 13:-0.492723 
